<?xml version="1.0"?>
<opencv_storage>
<cascade>
  <stageType>BOOST</stageType>
  <featureType>HAAR</featureType>
  <height>40</height>
  <width>29</width>
  <stageParams>
    <boostType>GAB</boostType>
    <minHitRate>9.9000000953674316e-01</minHitRate>
    <maxFalseAlarm>4.0000000596046448e-01</maxFalseAlarm>
    <weightTrimRate>9.4999999999999996e-01</weightTrimRate>
    <maxDepth>1</maxDepth>
    <maxWeakCount>100</maxWeakCount></stageParams>
  <featureParams>
    <maxCatCount>0</maxCatCount>
    <featSize>1</featSize>
    <mode>BASIC</mode></featureParams>
  <stageNum>11</stageNum>
  <stages>
    <!-- stage 0 -->
    <_>
      <maxWeakCount>2</maxWeakCount>
      <stageThreshold>-1.7408747971057892e-01</stageThreshold>
      <weakClassifiers>
        <_>
          <internalNodes>
            0 -1 0 -4.7872290015220642e-02</internalNodes>
          <leafValues>
            8.0000001192092896e-01 -9.7560977935791016e-01</leafValues></_>
        <_>
          <internalNodes>
            0 -1 14 -6.2433574348688126e-03</internalNodes>
          <leafValues>
            8.6348497867584229e-01 -9.7408747673034668e-01</leafValues></_></weakClassifiers></_>
    <!-- stage 1 -->
    <_>
      <maxWeakCount>2</maxWeakCount>
      <stageThreshold>6.2178890220820904e-03</stageThreshold>
      <weakClassifiers>
        <_>
          <internalNodes>
            0 -1 16 3.1669107265770435e-03</internalNodes>
          <leafValues>
            -9.3023258447647095e-01 1.</leafValues></_>
        <_>
          <internalNodes>
            0 -1 4 4.4181616976857185e-03</internalNodes>
          <leafValues>
            -9.1297274827957153e-01 9.3645042181015015e-01</leafValues></_></weakClassifiers></_>
    <!-- stage 2 -->
    <_>
      <maxWeakCount>2</maxWeakCount>
      <stageThreshold>-2.8845274448394775e-01</stageThreshold>
      <weakClassifiers>
        <_>
          <internalNodes>
            0 -1 19 2.5019468739628792e-02</internalNodes>
          <leafValues>
            -9.7500002384185791e-01 6.3636362552642822e-01</leafValues></_>
        <_>
          <internalNodes>
            0 -1 11 -1.6279496252536774e-02</internalNodes>
          <leafValues>
            6.8654727935791016e-01 -1.</leafValues></_></weakClassifiers></_>
    <!-- stage 3 -->
    <_>
      <maxWeakCount>2</maxWeakCount>
      <stageThreshold>-3.2290822267532349e-01</stageThreshold>
      <weakClassifiers>
        <_>
          <internalNodes>
            0 -1 1 -4.8632651567459106e-02</internalNodes>
          <leafValues>
            6.1904764175415039e-01 -9.5061731338500977e-01</leafValues></_>
        <_>
          <internalNodes>
            0 -1 8 -1.1997944675385952e-03</internalNodes>
          <leafValues>
            7.4545383453369141e-01 -9.4195586442947388e-01</leafValues></_></weakClassifiers></_>
    <!-- stage 4 -->
    <_>
      <maxWeakCount>2</maxWeakCount>
      <stageThreshold>-1.4380276203155518e-01</stageThreshold>
      <weakClassifiers>
        <_>
          <internalNodes>
            0 -1 17 7.2077922523021698e-03</internalNodes>
          <leafValues>
            -9.2857140302658081e-01 7.7777779102325439e-01</leafValues></_>
        <_>
          <internalNodes>
            0 -1 5 -8.2546174526214600e-03</internalNodes>
          <leafValues>
            7.8476864099502563e-01 -8.9962029457092285e-01</leafValues></_></weakClassifiers></_>
    <!-- stage 5 -->
    <_>
      <maxWeakCount>2</maxWeakCount>
      <stageThreshold>-2.5169020891189575e-01</stageThreshold>
      <weakClassifiers>
        <_>
          <internalNodes>
            0 -1 2 -1.9307762384414673e-02</internalNodes>
          <leafValues>
            6.6666668653488159e-01 -9.0476191043853760e-01</leafValues></_>
        <_>
          <internalNodes>
            0 -1 3 -1.7828281968832016e-02</internalNodes>
          <leafValues>
            7.7606648206710815e-01 -9.1835689544677734e-01</leafValues></_></weakClassifiers></_>
    <!-- stage 6 -->
    <_>
      <maxWeakCount>2</maxWeakCount>
      <stageThreshold>-3.0593636631965637e-01</stageThreshold>
      <weakClassifiers>
        <_>
          <internalNodes>
            0 -1 13 2.3374152369797230e-03</internalNodes>
          <leafValues>
            -9.0361446142196655e-01 5.7894736528396606e-01</leafValues></_>
        <_>
          <internalNodes>
            0 -1 18 3.5489926813170314e-04</internalNodes>
          <leafValues>
            -8.8488376140594482e-01 7.3680412769317627e-01</leafValues></_></weakClassifiers></_>
    <!-- stage 7 -->
    <_>
      <maxWeakCount>2</maxWeakCount>
      <stageThreshold>-4.7152778506278992e-01</stageThreshold>
      <weakClassifiers>
        <_>
          <internalNodes>
            0 -1 15 4.8732999712228775e-02</internalNodes>
          <leafValues>
            -9.7333335876464844e-01 3.3333334326744080e-01</leafValues></_>
        <_>
          <internalNodes>
            0 -1 9 1.6019433736801147e-02</internalNodes>
          <leafValues>
            -8.0486112833023071e-01 8.7406760454177856e-01</leafValues></_></weakClassifiers></_>
    <!-- stage 8 -->
    <_>
      <maxWeakCount>2</maxWeakCount>
      <stageThreshold>-1.6567699611186981e-01</stageThreshold>
      <weakClassifiers>
        <_>
          <internalNodes>
            0 -1 7 2.1421760320663452e-02</internalNodes>
          <leafValues>
            -8.4269660711288452e-01 8.4615385532379150e-01</leafValues></_>
        <_>
          <internalNodes>
            0 -1 12 -5.7746777310967445e-03</internalNodes>
          <leafValues>
            6.7701965570449829e-01 -9.2654693126678467e-01</leafValues></_></weakClassifiers></_>
    <!-- stage 9 -->
    <_>
      <maxWeakCount>1</maxWeakCount>
      <stageThreshold>4.6153846383094788e-01</stageThreshold>
      <weakClassifiers>
        <_>
          <internalNodes>
            0 -1 6 -1.5041583776473999e-01</internalNodes>
          <leafValues>
            4.6153846383094788e-01 -1.</leafValues></_></weakClassifiers></_>
    <!-- stage 10 -->
    <_>
      <maxWeakCount>2</maxWeakCount>
      <stageThreshold>4.7058824449777603e-02</stageThreshold>
      <weakClassifiers>
        <_>
          <internalNodes>
            0 -1 20 7.4910894036293030e-03</internalNodes>
          <leafValues>
            -9.5294117927551270e-01 1.</leafValues></_>
        <_>
          <internalNodes>
            0 -1 10 -8.3615966141223907e-03</internalNodes>
          <leafValues>
            1. -9.3333280086517334e-01</leafValues></_></weakClassifiers></_></stages>
  <features>
    <_>
      <rects>
        <_>
          0 0 10 27 -1.</_>
        <_>
          5 0 5 27 2.</_></rects>
      <tilted>0</tilted></_>
    <_>
      <rects>
        <_>
          0 2 24 6 -1.</_>
        <_>
          8 2 8 6 3.</_></rects>
      <tilted>0</tilted></_>
    <_>
      <rects>
        <_>
          0 17 8 6 -1.</_>
        <_>
          4 17 4 6 2.</_></rects>
      <tilted>0</tilted></_>
    <_>
      <rects>
        <_>
          2 1 18 4 -1.</_>
        <_>
          2 3 18 2 2.</_></rects>
      <tilted>0</tilted></_>
    <_>
      <rects>
        <_>
          2 16 22 2 -1.</_>
        <_>
          2 16 11 1 2.</_>
        <_>
          13 17 11 1 2.</_></rects>
      <tilted>0</tilted></_>
    <_>
      <rects>
        <_>
          2 26 27 1 -1.</_>
        <_>
          11 26 9 1 3.</_></rects>
      <tilted>0</tilted></_>
    <_>
      <rects>
        <_>
          3 0 26 33 -1.</_>
        <_>
          3 11 26 11 3.</_></rects>
      <tilted>0</tilted></_>
    <_>
      <rects>
        <_>
          3 14 26 6 -1.</_>
        <_>
          3 14 13 3 2.</_>
        <_>
          16 17 13 3 2.</_></rects>
      <tilted>0</tilted></_>
    <_>
      <rects>
        <_>
          3 18 19 2 -1.</_>
        <_>
          3 19 19 1 2.</_></rects>
      <tilted>0</tilted></_>
    <_>
      <rects>
        <_>
          4 23 5 14 -1.</_>
        <_>
          4 30 5 7 2.</_></rects>
      <tilted>0</tilted></_>
    <_>
      <rects>
        <_>
          5 10 4 17 -1.</_>
        <_>
          7 10 2 17 2.</_></rects>
      <tilted>0</tilted></_>
    <_>
      <rects>
        <_>
          6 0 5 18 -1.</_>
        <_>
          6 9 5 9 2.</_></rects>
      <tilted>0</tilted></_>
    <_>
      <rects>
        <_>
          6 24 12 6 -1.</_>
        <_>
          6 24 6 3 2.</_>
        <_>
          12 27 6 3 2.</_></rects>
      <tilted>0</tilted></_>
    <_>
      <rects>
        <_>
          8 27 12 2 -1.</_>
        <_>
          8 28 12 1 2.</_></rects>
      <tilted>0</tilted></_>
    <_>
      <rects>
        <_>
          9 0 4 9 -1.</_>
        <_>
          9 3 4 3 3.</_></rects>
      <tilted>0</tilted></_>
    <_>
      <rects>
        <_>
          9 10 18 10 -1.</_>
        <_>
          18 10 9 10 2.</_></rects>
      <tilted>0</tilted></_>
    <_>
      <rects>
        <_>
          10 36 14 4 -1.</_>
        <_>
          10 38 14 2 2.</_></rects>
      <tilted>0</tilted></_>
    <_>
      <rects>
        <_>
          11 4 18 1 -1.</_>
        <_>
          20 4 9 1 2.</_></rects>
      <tilted>0</tilted></_>
    <_>
      <rects>
        <_>
          13 27 2 4 -1.</_>
        <_>
          13 27 1 2 2.</_>
        <_>
          14 29 1 2 2.</_></rects>
      <tilted>0</tilted></_>
    <_>
      <rects>
        <_>
          15 0 14 11 -1.</_>
        <_>
          22 0 7 11 2.</_></rects>
      <tilted>0</tilted></_>
    <_>
      <rects>
        <_>
          19 31 10 8 -1.</_>
        <_>
          24 31 5 8 2.</_></rects>
      <tilted>0</tilted></_></features></cascade>
</opencv_storage>
